<?xml version="1.0"?>
<opencv_storage>
<cascade>
  <stageType>BOOST</stageType>
  <featureType>HAAR</featureType>
  <height>24</height>
  <width>36</width>
  <stageParams>
    <boostType>GAB</boostType>
    <minHitRate>9.9500000476837158e-01</minHitRate>
    <maxFalseAlarm>5.0000000000000000e-01</maxFalseAlarm>
    <weightTrimRate>9.4999998807907104e-01</weightTrimRate>
    <maxDepth>1</maxDepth>
    <maxWeakCount>100</maxWeakCount></stageParams>
  <featureParams>
    <maxCatCount>0</maxCatCount>
    <featSize>1</featSize>
    <mode>BASIC</mode></featureParams>
  <stageNum>9</stageNum>
  <stages>
    <!-- stage 0 -->
    <_>
      <maxWeakCount>2</maxWeakCount>
      <stageThreshold>-1.2345526367425919e-01</stageThreshold>
      <weakClassifiers>
        <_>
          <internalNodes>
            0 -1 0 2.0486330986022949e-01</internalNodes>
          <leafValues>
            -9.7609561681747437e-01 9.3103450536727905e-01</leafValues></_>
        <_>
          <internalNodes>
            0 -1 19 -6.6555224359035492e-02</internalNodes>
          <leafValues>
            8.5264033079147339e-01 -1.</leafValues></_></weakClassifiers></_>
    <!-- stage 1 -->
    <_>
      <maxWeakCount>2</maxWeakCount>
      <stageThreshold>-2.2823871672153473e-01</stageThreshold>
      <weakClassifiers>
        <_>
          <internalNodes>
            0 -1 13 -1.0602544993162155e-02</internalNodes>
          <leafValues>
            9.6521741151809692e-01 -9.8412698507308960e-01</leafValues></_>
        <_>
          <internalNodes>
            0 -1 3 -1.6415618360042572e-02</internalNodes>
          <leafValues>
            7.5588828325271606e-01 -1.</leafValues></_></weakClassifiers></_>
    <!-- stage 2 -->
    <_>
      <maxWeakCount>2</maxWeakCount>
      <stageThreshold>-3.9564770460128784e-01</stageThreshold>
      <weakClassifiers>
        <_>
          <internalNodes>
            0 -1 4 4.6393364667892456e-02</internalNodes>
          <leafValues>
            -9.5744681358337402e-01 6.6666668653488159e-01</leafValues></_>
        <_>
          <internalNodes>
            0 -1 2 6.0624897480010986e-01</internalNodes>
          <leafValues>
            -8.9691287279129028e-01 5.6179910898208618e-01</leafValues></_></weakClassifiers></_>
    <!-- stage 3 -->
    <_>
      <maxWeakCount>3</maxWeakCount>
      <stageThreshold>-1.2921788692474365e+00</stageThreshold>
      <weakClassifiers>
        <_>
          <internalNodes>
            0 -1 12 -2.6472445577383041e-02</internalNodes>
          <leafValues>
            6.9491523504257202e-01 -8.7951809167861938e-01</leafValues></_>
        <_>
          <internalNodes>
            0 -1 21 -1.7658714205026627e-02</internalNodes>
          <leafValues>
            5.6659281253814697e-01 -8.8453710079193115e-01</leafValues></_>
        <_>
          <internalNodes>
            0 -1 11 -6.6455011256039143e-03</internalNodes>
          <leafValues>
            4.7187632322311401e-01 -9.6462428569793701e-01</leafValues></_></weakClassifiers></_>
    <!-- stage 4 -->
    <_>
      <maxWeakCount>2</maxWeakCount>
      <stageThreshold>-4.5342740416526794e-01</stageThreshold>
      <weakClassifiers>
        <_>
          <internalNodes>
            0 -1 7 -6.9412723183631897e-02</internalNodes>
          <leafValues>
            5.7480317354202271e-01 -8.7500000000000000e-01</leafValues></_>
        <_>
          <internalNodes>
            0 -1 6 1.8715563416481018e-01</internalNodes>
          <leafValues>
            -9.4797623157501221e-01 4.2157259583473206e-01</leafValues></_></weakClassifiers></_>
    <!-- stage 5 -->
    <_>
      <maxWeakCount>3</maxWeakCount>
      <stageThreshold>-1.1862747669219971e+00</stageThreshold>
      <weakClassifiers>
        <_>
          <internalNodes>
            0 -1 20 -3.5550244152545929e-02</internalNodes>
          <leafValues>
            5.0344824790954590e-01 -9.4594591856002808e-01</leafValues></_>
        <_>
          <internalNodes>
            0 -1 17 -1.2163375504314899e-02</internalNodes>
          <leafValues>
            7.7237111330032349e-01 -7.3339992761611938e-01</leafValues></_>
        <_>
          <internalNodes>
            0 -1 22 -1.3100823387503624e-02</internalNodes>
          <leafValues>
            4.9307107925415039e-01 -9.2416530847549438e-01</leafValues></_></weakClassifiers></_>
    <!-- stage 6 -->
    <_>
      <maxWeakCount>2</maxWeakCount>
      <stageThreshold>-5.1480388641357422e-01</stageThreshold>
      <weakClassifiers>
        <_>
          <internalNodes>
            0 -1 5 1.6789110377430916e-02</internalNodes>
          <leafValues>
            -9.2558139562606812e-01 4.0789473056793213e-01</leafValues></_>
        <_>
          <internalNodes>
            0 -1 18 -2.1661347150802612e-01</internalNodes>
          <leafValues>
            4.3768462538719177e-01 -9.2269861698150635e-01</leafValues></_></weakClassifiers></_>
    <!-- stage 7 -->
    <_>
      <maxWeakCount>3</maxWeakCount>
      <stageThreshold>-1.1128253936767578e+00</stageThreshold>
      <weakClassifiers>
        <_>
          <internalNodes>
            0 -1 8 9.8631652072072029e-03</internalNodes>
          <leafValues>
            -7.4285715818405151e-01 8.1609195470809937e-01</leafValues></_>
        <_>
          <internalNodes>
            0 -1 1 5.6159570813179016e-02</internalNodes>
          <leafValues>
            -8.4869736433029175e-01 5.5970603227615356e-01</leafValues></_>
        <_>
          <internalNodes>
            0 -1 14 -4.4778251321986318e-05</internalNodes>
          <leafValues>
            4.7872912883758545e-01 -8.9444732666015625e-01</leafValues></_></weakClassifiers></_>
    <!-- stage 8 -->
    <_>
      <maxWeakCount>4</maxWeakCount>
      <stageThreshold>-9.8599088191986084e-01</stageThreshold>
      <weakClassifiers>
        <_>
          <internalNodes>
            0 -1 9 1.0268694721162319e-02</internalNodes>
          <leafValues>
            -7.3476701974868774e-01 7.7272725105285645e-01</leafValues></_>
        <_>
          <internalNodes>
            0 -1 16 -4.5762313529849052e-03</internalNodes>
          <leafValues>
            4.4529971480369568e-01 -9.4792842864990234e-01</leafValues></_>
        <_>
          <internalNodes>
            0 -1 15 -2.3494930937886238e-03</internalNodes>
          <leafValues>
            3.0545645952224731e-01 -9.8118782043457031e-01</leafValues></_>
        <_>
          <internalNodes>
            0 -1 10 2.0165944079053588e-05</internalNodes>
          <leafValues>
            -9.3335789442062378e-01 3.9124810695648193e-01</leafValues></_></weakClassifiers></_></stages>
  <features>
    <_>
      <rects>
        <_>
          0 0 10 23 -1.</_>
        <_>
          5 0 5 23 2.</_></rects>
      <tilted>0</tilted></_>
    <_>
      <rects>
        <_>
          0 1 6 16 -1.</_>
        <_>
          3 1 3 16 2.</_></rects>
      <tilted>0</tilted></_>
    <_>
      <rects>
        <_>
          0 3 36 21 -1.</_>
        <_>
          12 3 12 21 3.</_></rects>
      <tilted>0</tilted></_>
    <_>
      <rects>
        <_>
          0 8 22 6 -1.</_>
        <_>
          0 11 22 3 2.</_></rects>
      <tilted>0</tilted></_>
    <_>
      <rects>
        <_>
          0 10 21 3 -1.</_>
        <_>
          7 10 7 3 3.</_></rects>
      <tilted>0</tilted></_>
    <_>
      <rects>
        <_>
          1 15 6 4 -1.</_>
        <_>
          4 15 3 4 2.</_></rects>
      <tilted>0</tilted></_>
    <_>
      <rects>
        <_>
          2 0 12 24 -1.</_>
        <_>
          8 0 6 24 2.</_></rects>
      <tilted>0</tilted></_>
    <_>
      <rects>
        <_>
          2 7 32 8 -1.</_>
        <_>
          2 11 32 4 2.</_></rects>
      <tilted>0</tilted></_>
    <_>
      <rects>
        <_>
          5 14 26 3 -1.</_>
        <_>
          5 15 26 1 3.</_></rects>
      <tilted>0</tilted></_>
    <_>
      <rects>
        <_>
          6 14 29 3 -1.</_>
        <_>
          6 15 29 1 3.</_></rects>
      <tilted>0</tilted></_>
    <_>
      <rects>
        <_>
          8 5 2 1 -1.</_>
        <_>
          9 5 1 1 2.</_></rects>
      <tilted>0</tilted></_>
    <_>
      <rects>
        <_>
          8 14 19 6 -1.</_>
        <_>
          8 17 19 3 2.</_></rects>
      <tilted>0</tilted></_>
    <_>
      <rects>
        <_>
          9 8 15 6 -1.</_>
        <_>
          9 11 15 3 2.</_></rects>
      <tilted>0</tilted></_>
    <_>
      <rects>
        <_>
          10 10 18 6 -1.</_>
        <_>
          10 12 18 2 3.</_></rects>
      <tilted>0</tilted></_>
    <_>
      <rects>
        <_>
          10 12 1 2 -1.</_>
        <_>
          10 13 1 1 2.</_></rects>
      <tilted>0</tilted></_>
    <_>
      <rects>
        <_>
          12 9 15 4 -1.</_>
        <_>
          17 9 5 4 3.</_></rects>
      <tilted>0</tilted></_>
    <_>
      <rects>
        <_>
          13 15 14 9 -1.</_>
        <_>
          13 18 14 3 3.</_></rects>
      <tilted>0</tilted></_>
    <_>
      <rects>
        <_>
          15 9 6 6 -1.</_>
        <_>
          15 11 6 2 3.</_></rects>
      <tilted>0</tilted></_>
    <_>
      <rects>
        <_>
          22 0 14 21 -1.</_>
        <_>
          29 0 7 21 2.</_></rects>
      <tilted>0</tilted></_>
    <_>
      <rects>
        <_>
          26 3 10 11 -1.</_>
        <_>
          31 3 5 11 2.</_></rects>
      <tilted>0</tilted></_>
    <_>
      <rects>
        <_>
          28 11 8 6 -1.</_>
        <_>
          32 11 4 6 2.</_></rects>
      <tilted>0</tilted></_>
    <_>
      <rects>
        <_>
          29 11 6 5 -1.</_>
        <_>
          32 11 3 5 2.</_></rects>
      <tilted>0</tilted></_>
    <_>
      <rects>
        <_>
          32 3 4 11 -1.</_>
        <_>
          34 3 2 11 2.</_></rects>
      <tilted>0</tilted></_></features></cascade>
</opencv_storage>
